Language model created by QuickLM on Mon Dec  5 06:25:17 EST 2016
Copyright (c) 1996-2010 Carnegie Mellon University and Alexander I. Rudnicky

The model is in standard ARPA format, designed by Doug Paul while he was at MITRE.

The code that was used to produce this language model is available in Open Source.
Please visit http://www.speech.cs.cmu.edu/tools/ for more information

The (fixed) discount mass is 0.5. The backoffs are computed using the ratio method.
This model based on a corpus of 9 sentences and 12 words

\data\
ngram 1=12
ngram 2=19
ngram 3=11

\1-grams:
-0.8092 </s> -0.3010
-0.8092 <s> -0.2278
-1.7634 BAD -0.2278
-1.7634 COMPUTER -0.2278
-1.7634 EXIT -0.2278
-1.7634 GOOD -0.2278
-1.7634 MUSSY -0.2278
-1.7634 NO -0.2278
-1.7634 ROBOT -0.2278
-1.4624 START -0.2858
-1.7634 STOP -0.2278
-1.7634 YES -0.2278

\2-grams:
-1.2553 <s> BAD 0.0000
-1.2553 <s> COMPUTER 0.0000
-1.2553 <s> EXIT 0.0000
-1.2553 <s> GOOD 0.0000
-1.2553 <s> NO 0.0000
-0.9542 <s> START 0.0000
-1.2553 <s> STOP 0.0000
-1.2553 <s> YES 0.0000
-0.3010 BAD </s> -0.3010
-0.3010 COMPUTER </s> -0.3010
-0.3010 EXIT </s> -0.3010
-0.3010 GOOD </s> -0.3010
-0.3010 MUSSY </s> -0.3010
-0.3010 NO </s> -0.3010
-0.3010 ROBOT </s> -0.3010
-0.6021 START MUSSY 0.0000
-0.6021 START ROBOT 0.0000
-0.3010 STOP </s> -0.3010
-0.3010 YES </s> -0.3010

\3-grams:
-0.3010 <s> BAD </s>
-0.3010 <s> COMPUTER </s>
-0.3010 <s> EXIT </s>
-0.3010 <s> GOOD </s>
-0.3010 <s> NO </s>
-0.6021 <s> START MUSSY
-0.6021 <s> START ROBOT
-0.3010 <s> STOP </s>
-0.3010 <s> YES </s>
-0.3010 START MUSSY </s>
-0.3010 START ROBOT </s>

\end\
