Language model created by QuickLM on Mon Dec 12 13:40:14 EST 2016
Copyright (c) 1996-2010 Carnegie Mellon University and Alexander I. Rudnicky

The model is in standard ARPA format, designed by Doug Paul while he was at MITRE.

The code that was used to produce this language model is available in Open Source.
Please visit http://www.speech.cs.cmu.edu/tools/ for more information

The (fixed) discount mass is 0.5. The backoffs are computed using the ratio method.
This model based on a corpus of 11 sentences and 14 words

\data\
ngram 1=14
ngram 2=23
ngram 3=15

\1-grams:
-0.8278 </s> -0.3010
-0.8278 <s> -0.2311
-1.8692 BAD -0.2311
-1.8692 COMPUTER -0.2311
-1.8692 EXIT -0.2311
-1.8692 GOOD -0.2311
-1.5682 HELLO -0.2831
-1.8692 MUSSY -0.2311
-1.8692 NO -0.2311
-1.5682 ROBOT -0.2311
-1.5682 START -0.2831
-1.8692 STOP -0.2311
-1.8692 USSY -0.2311
-1.8692 YES -0.2311

\2-grams:
-1.3424 <s> BAD 0.0000
-1.3424 <s> COMPUTER 0.0000
-1.3424 <s> EXIT 0.0000
-1.3424 <s> GOOD 0.0000
-1.0414 <s> HELLO 0.0000
-1.3424 <s> NO 0.0000
-1.0414 <s> START 0.0000
-1.3424 <s> STOP 0.0000
-1.3424 <s> YES 0.0000
-0.3010 BAD </s> -0.3010
-0.3010 COMPUTER </s> -0.3010
-0.3010 EXIT </s> -0.3010
-0.3010 GOOD </s> -0.3010
-0.6021 HELLO MUSSY 0.0000
-0.6021 HELLO ROBOT 0.0000
-0.3010 MUSSY </s> -0.3010
-0.3010 NO </s> -0.3010
-0.3010 ROBOT </s> -0.3010
-0.6021 START ROBOT 0.0000
-0.6021 START USSY 0.0000
-0.3010 STOP </s> -0.3010
-0.3010 USSY </s> -0.3010
-0.3010 YES </s> -0.3010

\3-grams:
-0.3010 <s> BAD </s>
-0.3010 <s> COMPUTER </s>
-0.3010 <s> EXIT </s>
-0.3010 <s> GOOD </s>
-0.6021 <s> HELLO MUSSY
-0.6021 <s> HELLO ROBOT
-0.3010 <s> NO </s>
-0.6021 <s> START ROBOT
-0.6021 <s> START USSY
-0.3010 <s> STOP </s>
-0.3010 <s> YES </s>
-0.3010 HELLO MUSSY </s>
-0.3010 HELLO ROBOT </s>
-0.3010 START ROBOT </s>
-0.3010 START USSY </s>

\end\
