Language model created by QuickLM on Thu Oct 27 05:24:57 EDT 2016
Copyright (c) 1996-2010 Carnegie Mellon University and Alexander I. Rudnicky

The model is in standard ARPA format, designed by Doug Paul while he was at MITRE.

The code that was used to produce this language model is available in Open Source.
Please visit http://www.speech.cs.cmu.edu/tools/ for more information

The (fixed) discount mass is 0.5. The backoffs are computed using the ratio method.
This model based on a corpus of 6 sentences and 8 words

\data\
ngram 1=8
ngram 2=12
ngram 3=6

\1-grams:
-0.7782 </s> -0.3010
-0.7782 <s> -0.2218
-1.5563 BAD -0.2218
-1.5563 COMPUTER -0.2218
-1.5563 EXIT -0.2218
-1.5563 GOOD -0.2218
-1.5563 NO -0.2218
-1.5563 YES -0.2218

\2-grams:
-1.0792 <s> BAD 0.0000
-1.0792 <s> COMPUTER 0.0000
-1.0792 <s> EXIT 0.0000
-1.0792 <s> GOOD 0.0000
-1.0792 <s> NO 0.0000
-1.0792 <s> YES 0.0000
-0.3010 BAD </s> -0.3010
-0.3010 COMPUTER </s> -0.3010
-0.3010 EXIT </s> -0.3010
-0.3010 GOOD </s> -0.3010
-0.3010 NO </s> -0.3010
-0.3010 YES </s> -0.3010

\3-grams:
-0.3010 <s> BAD </s>
-0.3010 <s> COMPUTER </s>
-0.3010 <s> EXIT </s>
-0.3010 <s> GOOD </s>
-0.3010 <s> NO </s>
-0.3010 <s> YES </s>

\end\
