Language model created by QuickLM on Thu Jul 11 02:26:20 EDT 2013
Copyright (c) 1996-2010 Carnegie Mellon University and Alexander I. Rudnicky

The model is in standard ARPA format, designed by Doug Paul while he was at MITRE.

The code that was used to produce this language model is available in Open Source.
Please visit http://www.speech.cs.cmu.edu/tools/ for more information

The (fixed) discount mass is 0.5. The backoffs are computed using the ratio method.
This model based on a corpus of 196 sentences and 198 words

\data\
ngram 1=198
ngram 2=392
ngram 3=196

\1-grams:
-0.7782 </s> -0.3010
-0.7782 <s> -0.2218
-3.0704 ABET -0.2218
-3.0704 ABLE -0.2218
-3.0704 ABS -0.2218
-3.0704 ACE -0.2218
-3.0704 ACID -0.2218
-3.0704 ACQUIT -0.2218
-3.0704 ACRE -0.2218
-3.0704 ACRID -0.2218
-3.0704 ADA -0.2218
-3.0704 ADDLE -0.2218
-3.0704 ADJUST -0.2218
-3.0704 ADORE -0.2218
-3.0704 ADVANTAGE -0.2218
-3.0704 AFFECT -0.2218
-3.0704 AFFLUENT -0.2218
-3.0704 AFORE -0.2218
-3.0704 AGAIN -0.2218
-3.0704 AGE -0.2218
-3.0704 AH -0.2218
-3.0704 AHEAD -0.2218
-3.0704 AID -0.2218
-3.0704 AIM -0.2218
-3.0704 ALONE -0.2218
-3.0704 AMENITY -0.2218
-3.0704 ANODE -0.2218
-3.0704 AORTA -0.2218
-3.0704 APPEAR -0.2218
-3.0704 ARID -0.2218
-3.0704 ASCEND -0.2218
-3.0704 ATTEST -0.2218
-3.0704 AUGMENT -0.2218
-3.0704 AVERT -0.2218
-3.0704 AWOKE -0.2218
-3.0704 BAH -0.2218
-3.0704 BEND -0.2218
-3.0704 BIN -0.2218
-3.0704 BIND -0.2218
-3.0704 BOND -0.2218
-3.0704 BONE -0.2218
-3.0704 BUN -0.2218
-3.0704 CALL -0.2218
-3.0704 CAST -0.2218
-3.0704 CERTIFY -0.2218
-3.0704 CIGAR -0.2218
-3.0704 CIRCUS -0.2218
-3.0704 COMPUTER -0.2218
-3.0704 CON -0.2218
-3.0704 CONE -0.2218
-3.0704 COY -0.2218
-3.0704 CULL -0.2218
-3.0704 CUP -0.2218
-3.0704 CURT -0.2218
-3.0704 DA -0.2218
-3.0704 DAFT -0.2218
-3.0704 DAY -0.2218
-3.0704 DEED -0.2218
-3.0704 DESTINY -0.2218
-3.0704 DIN -0.2218
-3.0704 DINE -0.2218
-3.0704 DOG -0.2218
-3.0704 DOOR -0.2218
-3.0704 DOSE -0.2218
-3.0704 DUDE -0.2218
-3.0704 DUG -0.2218
-3.0704 EAR -0.2218
-3.0704 EBB -0.2218
-3.0704 ECHO -0.2218
-3.0704 EDGE -0.2218
-3.0704 EFFORT -0.2218
-3.0704 EGG -0.2218
-3.0704 EKE -0.2218
-3.0704 ELM -0.2218
-3.0704 EMANATE -0.2218
-3.0704 ENTIRE -0.2218
-3.0704 EPISTLE -0.2218
-3.0704 EQUAL -0.2218
-3.0704 ERROR -0.2218
-3.0704 ESTIMATE -0.2218
-3.0704 EULOGY -0.2218
-3.0704 EVER -0.2218
-3.0704 EW -0.2218
-3.0704 EXAMPLE -0.2218
-3.0704 EZEKIEL -0.2218
-3.0704 FAR -0.2218
-3.0704 FEAR -0.2218
-3.0704 FILL -0.2218
-3.0704 FORE -0.2218
-3.0704 FOUL -0.2218
-3.0704 FUN -0.2218
-3.0704 GAP -0.2218
-3.0704 GET -0.2218
-3.0704 GILL -0.2218
-3.0704 GONE -0.2218
-3.0704 GUN -0.2218
-3.0704 HAS -0.2218
-3.0704 HER -0.2218
-3.0704 HITTER -0.2218
-3.0704 ICKY -0.2218
-3.0704 INTERNET -0.2218
-3.0704 ISLE -0.2218
-3.0704 ITERATE -0.2218
-3.0704 JANITOR -0.2218
-3.0704 JET -0.2218
-3.0704 JEWEL -0.2218
-3.0704 JOGGER -0.2218
-3.0704 JUST -0.2218
-3.0704 KEY -0.2218
-3.0704 KILL -0.2218
-3.0704 LAST -0.2218
-3.0704 LAW -0.2218
-3.0704 LEER -0.2218
-3.0704 LIBRARY -0.2218
-3.0704 LOBSTER -0.2218
-3.0704 LORE -0.2218
-3.0704 MANNER -0.2218
-3.0704 MEAN -0.2218
-3.0704 MENTHOL -0.2218
-3.0704 MINT -0.2218
-3.0704 MOSTLY -0.2218
-3.0704 MULE -0.2218
-3.0704 NAB -0.2218
-3.0704 NEVER -0.2218
-3.0704 NIBBLE -0.2218
-3.0704 NONETHELESS -0.2218
-3.0704 NUDE -0.2218
-3.0704 OBOE -0.2218
-3.0704 OCULAR -0.2218
-3.0704 ODE -0.2218
-3.0704 OFFER -0.2218
-3.0704 OGLE -0.2218
-3.0704 OH -0.2218
-3.0704 OIL -0.2218
-3.0704 OKAY -0.2218
-3.0704 OM -0.2218
-3.0704 ONTOLOGY -0.2218
-3.0704 OOPS -0.2218
-3.0704 OPERATION -0.2218
-3.0704 ORNATE -0.2218
-3.0704 OSCILLATE -0.2218
-3.0704 OTTER -0.2218
-3.0704 OUT -0.2218
-3.0704 OVER -0.2218
-3.0704 OWN -0.2218
-3.0704 OXEN -0.2218
-3.0704 OYSTER -0.2218
-3.0704 OZ -0.2218
-3.0704 PASTE -0.2218
-3.0704 PAT -0.2218
-3.0704 PEER -0.2218
-3.0704 PERCOLATE -0.2218
-3.0704 PISTON -0.2218
-3.0704 PLUNDER -0.2218
-3.0704 POT -0.2218
-3.0704 PUN -0.2218
-3.0704 QUEEN -0.2218
-3.0704 QUEST -0.2218
-3.0704 QUORUM -0.2218
-3.0704 RAFT -0.2218
-3.0704 RENT -0.2218
-3.0704 RIND -0.2218
-3.0704 RUIN -0.2218
-3.0704 SAFE -0.2218
-3.0704 SANDY -0.2218
-3.0704 SEAR -0.2218
-3.0704 SIN -0.2218
-3.0704 SIREN -0.2218
-3.0704 SUPER -0.2218
-3.0704 TAN -0.2218
-3.0704 TEN -0.2218
-3.0704 TITILLATE -0.2218
-3.0704 TOGGLE -0.2218
-3.0704 TUPLE -0.2218
-3.0704 UBER -0.2218
-3.0704 UDDER -0.2218
-3.0704 UNDERGROUND -0.2218
-3.0704 VACATE -0.2218
-3.0704 VAST -0.2218
-3.0704 VENT -0.2218
-3.0704 VIEW -0.2218
-3.0704 VINE -0.2218
-3.0704 VORACIOUS -0.2218
-3.0704 WAR -0.2218
-3.0704 WASTE -0.2218
-3.0704 WEB -0.2218
-3.0704 WHEN -0.2218
-3.0704 WHIP -0.2218
-3.0704 WHOLE -0.2218
-3.0704 WHY -0.2218
-3.0704 WORE -0.2218
-3.0704 YACHT -0.2218
-3.0704 YES -0.2218
-3.0704 YOKE -0.2218
-3.0704 YUMMY -0.2218
-3.0704 ZAPPER -0.2218
-3.0704 ZEBRA -0.2218
-3.0704 ZONE -0.2218

\2-grams:
-2.5933 <s> ABET 0.0000
-2.5933 <s> ABLE 0.0000
-2.5933 <s> ABS 0.0000
-2.5933 <s> ACE 0.0000
-2.5933 <s> ACID 0.0000
-2.5933 <s> ACQUIT 0.0000
-2.5933 <s> ACRE 0.0000
-2.5933 <s> ACRID 0.0000
-2.5933 <s> ADA 0.0000
-2.5933 <s> ADDLE 0.0000
-2.5933 <s> ADJUST 0.0000
-2.5933 <s> ADORE 0.0000
-2.5933 <s> ADVANTAGE 0.0000
-2.5933 <s> AFFECT 0.0000
-2.5933 <s> AFFLUENT 0.0000
-2.5933 <s> AFORE 0.0000
-2.5933 <s> AGAIN 0.0000
-2.5933 <s> AGE 0.0000
-2.5933 <s> AH 0.0000
-2.5933 <s> AHEAD 0.0000
-2.5933 <s> AID 0.0000
-2.5933 <s> AIM 0.0000
-2.5933 <s> ALONE 0.0000
-2.5933 <s> AMENITY 0.0000
-2.5933 <s> ANODE 0.0000
-2.5933 <s> AORTA 0.0000
-2.5933 <s> APPEAR 0.0000
-2.5933 <s> ARID 0.0000
-2.5933 <s> ASCEND 0.0000
-2.5933 <s> ATTEST 0.0000
-2.5933 <s> AUGMENT 0.0000
-2.5933 <s> AVERT 0.0000
-2.5933 <s> AWOKE 0.0000
-2.5933 <s> BAH 0.0000
-2.5933 <s> BEND 0.0000
-2.5933 <s> BIN 0.0000
-2.5933 <s> BIND 0.0000
-2.5933 <s> BOND 0.0000
-2.5933 <s> BONE 0.0000
-2.5933 <s> BUN 0.0000
-2.5933 <s> CALL 0.0000
-2.5933 <s> CAST 0.0000
-2.5933 <s> CERTIFY 0.0000
-2.5933 <s> CIGAR 0.0000
-2.5933 <s> CIRCUS 0.0000
-2.5933 <s> COMPUTER 0.0000
-2.5933 <s> CON 0.0000
-2.5933 <s> CONE 0.0000
-2.5933 <s> COY 0.0000
-2.5933 <s> CULL 0.0000
-2.5933 <s> CUP 0.0000
-2.5933 <s> CURT 0.0000
-2.5933 <s> DA 0.0000
-2.5933 <s> DAFT 0.0000
-2.5933 <s> DAY 0.0000
-2.5933 <s> DEED 0.0000
-2.5933 <s> DESTINY 0.0000
-2.5933 <s> DIN 0.0000
-2.5933 <s> DINE 0.0000
-2.5933 <s> DOG 0.0000
-2.5933 <s> DOOR 0.0000
-2.5933 <s> DOSE 0.0000
-2.5933 <s> DUDE 0.0000
-2.5933 <s> DUG 0.0000
-2.5933 <s> EAR 0.0000
-2.5933 <s> EBB 0.0000
-2.5933 <s> ECHO 0.0000
-2.5933 <s> EDGE 0.0000
-2.5933 <s> EFFORT 0.0000
-2.5933 <s> EGG 0.0000
-2.5933 <s> EKE 0.0000
-2.5933 <s> ELM 0.0000
-2.5933 <s> EMANATE 0.0000
-2.5933 <s> ENTIRE 0.0000
-2.5933 <s> EPISTLE 0.0000
-2.5933 <s> EQUAL 0.0000
-2.5933 <s> ERROR 0.0000
-2.5933 <s> ESTIMATE 0.0000
-2.5933 <s> EULOGY 0.0000
-2.5933 <s> EVER 0.0000
-2.5933 <s> EW 0.0000
-2.5933 <s> EXAMPLE 0.0000
-2.5933 <s> EZEKIEL 0.0000
-2.5933 <s> FAR 0.0000
-2.5933 <s> FEAR 0.0000
-2.5933 <s> FILL 0.0000
-2.5933 <s> FORE 0.0000
-2.5933 <s> FOUL 0.0000
-2.5933 <s> FUN 0.0000
-2.5933 <s> GAP 0.0000
-2.5933 <s> GET 0.0000
-2.5933 <s> GILL 0.0000
-2.5933 <s> GONE 0.0000
-2.5933 <s> GUN 0.0000
-2.5933 <s> HAS 0.0000
-2.5933 <s> HER 0.0000
-2.5933 <s> HITTER 0.0000
-2.5933 <s> ICKY 0.0000
-2.5933 <s> INTERNET 0.0000
-2.5933 <s> ISLE 0.0000
-2.5933 <s> ITERATE 0.0000
-2.5933 <s> JANITOR 0.0000
-2.5933 <s> JET 0.0000
-2.5933 <s> JEWEL 0.0000
-2.5933 <s> JOGGER 0.0000
-2.5933 <s> JUST 0.0000
-2.5933 <s> KEY 0.0000
-2.5933 <s> KILL 0.0000
-2.5933 <s> LAST 0.0000
-2.5933 <s> LAW 0.0000
-2.5933 <s> LEER 0.0000
-2.5933 <s> LIBRARY 0.0000
-2.5933 <s> LOBSTER 0.0000
-2.5933 <s> LORE 0.0000
-2.5933 <s> MANNER 0.0000
-2.5933 <s> MEAN 0.0000
-2.5933 <s> MENTHOL 0.0000
-2.5933 <s> MINT 0.0000
-2.5933 <s> MOSTLY 0.0000
-2.5933 <s> MULE 0.0000
-2.5933 <s> NAB 0.0000
-2.5933 <s> NEVER 0.0000
-2.5933 <s> NIBBLE 0.0000
-2.5933 <s> NONETHELESS 0.0000
-2.5933 <s> NUDE 0.0000
-2.5933 <s> OBOE 0.0000
-2.5933 <s> OCULAR 0.0000
-2.5933 <s> ODE 0.0000
-2.5933 <s> OFFER 0.0000
-2.5933 <s> OGLE 0.0000
-2.5933 <s> OH 0.0000
-2.5933 <s> OIL 0.0000
-2.5933 <s> OKAY 0.0000
-2.5933 <s> OM 0.0000
-2.5933 <s> ONTOLOGY 0.0000
-2.5933 <s> OOPS 0.0000
-2.5933 <s> OPERATION 0.0000
-2.5933 <s> ORNATE 0.0000
-2.5933 <s> OSCILLATE 0.0000
-2.5933 <s> OTTER 0.0000
-2.5933 <s> OUT 0.0000
-2.5933 <s> OVER 0.0000
-2.5933 <s> OWN 0.0000
-2.5933 <s> OXEN 0.0000
-2.5933 <s> OYSTER 0.0000
-2.5933 <s> OZ 0.0000
-2.5933 <s> PASTE 0.0000
-2.5933 <s> PAT 0.0000
-2.5933 <s> PEER 0.0000
-2.5933 <s> PERCOLATE 0.0000
-2.5933 <s> PISTON 0.0000
-2.5933 <s> PLUNDER 0.0000
-2.5933 <s> POT 0.0000
-2.5933 <s> PUN 0.0000
-2.5933 <s> QUEEN 0.0000
-2.5933 <s> QUEST 0.0000
-2.5933 <s> QUORUM 0.0000
-2.5933 <s> RAFT 0.0000
-2.5933 <s> RENT 0.0000
-2.5933 <s> RIND 0.0000
-2.5933 <s> RUIN 0.0000
-2.5933 <s> SAFE 0.0000
-2.5933 <s> SANDY 0.0000
-2.5933 <s> SEAR 0.0000
-2.5933 <s> SIN 0.0000
-2.5933 <s> SIREN 0.0000
-2.5933 <s> SUPER 0.0000
-2.5933 <s> TAN 0.0000
-2.5933 <s> TEN 0.0000
-2.5933 <s> TITILLATE 0.0000
-2.5933 <s> TOGGLE 0.0000
-2.5933 <s> TUPLE 0.0000
-2.5933 <s> UBER 0.0000
-2.5933 <s> UDDER 0.0000
-2.5933 <s> UNDERGROUND 0.0000
-2.5933 <s> VACATE 0.0000
-2.5933 <s> VAST 0.0000
-2.5933 <s> VENT 0.0000
-2.5933 <s> VIEW 0.0000
-2.5933 <s> VINE 0.0000
-2.5933 <s> VORACIOUS 0.0000
-2.5933 <s> WAR 0.0000
-2.5933 <s> WASTE 0.0000
-2.5933 <s> WEB 0.0000
-2.5933 <s> WHEN 0.0000
-2.5933 <s> WHIP 0.0000
-2.5933 <s> WHOLE 0.0000
-2.5933 <s> WHY 0.0000
-2.5933 <s> WORE 0.0000
-2.5933 <s> YACHT 0.0000
-2.5933 <s> YES 0.0000
-2.5933 <s> YOKE 0.0000
-2.5933 <s> YUMMY 0.0000
-2.5933 <s> ZAPPER 0.0000
-2.5933 <s> ZEBRA 0.0000
-2.5933 <s> ZONE 0.0000
-0.3010 ABET </s> -0.3010
-0.3010 ABLE </s> -0.3010
-0.3010 ABS </s> -0.3010
-0.3010 ACE </s> -0.3010
-0.3010 ACID </s> -0.3010
-0.3010 ACQUIT </s> -0.3010
-0.3010 ACRE </s> -0.3010
-0.3010 ACRID </s> -0.3010
-0.3010 ADA </s> -0.3010
-0.3010 ADDLE </s> -0.3010
-0.3010 ADJUST </s> -0.3010
-0.3010 ADORE </s> -0.3010
-0.3010 ADVANTAGE </s> -0.3010
-0.3010 AFFECT </s> -0.3010
-0.3010 AFFLUENT </s> -0.3010
-0.3010 AFORE </s> -0.3010
-0.3010 AGAIN </s> -0.3010
-0.3010 AGE </s> -0.3010
-0.3010 AH </s> -0.3010
-0.3010 AHEAD </s> -0.3010
-0.3010 AID </s> -0.3010
-0.3010 AIM </s> -0.3010
-0.3010 ALONE </s> -0.3010
-0.3010 AMENITY </s> -0.3010
-0.3010 ANODE </s> -0.3010
-0.3010 AORTA </s> -0.3010
-0.3010 APPEAR </s> -0.3010
-0.3010 ARID </s> -0.3010
-0.3010 ASCEND </s> -0.3010
-0.3010 ATTEST </s> -0.3010
-0.3010 AUGMENT </s> -0.3010
-0.3010 AVERT </s> -0.3010
-0.3010 AWOKE </s> -0.3010
-0.3010 BAH </s> -0.3010
-0.3010 BEND </s> -0.3010
-0.3010 BIN </s> -0.3010
-0.3010 BIND </s> -0.3010
-0.3010 BOND </s> -0.3010
-0.3010 BONE </s> -0.3010
-0.3010 BUN </s> -0.3010
-0.3010 CALL </s> -0.3010
-0.3010 CAST </s> -0.3010
-0.3010 CERTIFY </s> -0.3010
-0.3010 CIGAR </s> -0.3010
-0.3010 CIRCUS </s> -0.3010
-0.3010 COMPUTER </s> -0.3010
-0.3010 CON </s> -0.3010
-0.3010 CONE </s> -0.3010
-0.3010 COY </s> -0.3010
-0.3010 CULL </s> -0.3010
-0.3010 CUP </s> -0.3010
-0.3010 CURT </s> -0.3010
-0.3010 DA </s> -0.3010
-0.3010 DAFT </s> -0.3010
-0.3010 DAY </s> -0.3010
-0.3010 DEED </s> -0.3010
-0.3010 DESTINY </s> -0.3010
-0.3010 DIN </s> -0.3010
-0.3010 DINE </s> -0.3010
-0.3010 DOG </s> -0.3010
-0.3010 DOOR </s> -0.3010
-0.3010 DOSE </s> -0.3010
-0.3010 DUDE </s> -0.3010
-0.3010 DUG </s> -0.3010
-0.3010 EAR </s> -0.3010
-0.3010 EBB </s> -0.3010
-0.3010 ECHO </s> -0.3010
-0.3010 EDGE </s> -0.3010
-0.3010 EFFORT </s> -0.3010
-0.3010 EGG </s> -0.3010
-0.3010 EKE </s> -0.3010
-0.3010 ELM </s> -0.3010
-0.3010 EMANATE </s> -0.3010
-0.3010 ENTIRE </s> -0.3010
-0.3010 EPISTLE </s> -0.3010
-0.3010 EQUAL </s> -0.3010
-0.3010 ERROR </s> -0.3010
-0.3010 ESTIMATE </s> -0.3010
-0.3010 EULOGY </s> -0.3010
-0.3010 EVER </s> -0.3010
-0.3010 EW </s> -0.3010
-0.3010 EXAMPLE </s> -0.3010
-0.3010 EZEKIEL </s> -0.3010
-0.3010 FAR </s> -0.3010
-0.3010 FEAR </s> -0.3010
-0.3010 FILL </s> -0.3010
-0.3010 FORE </s> -0.3010
-0.3010 FOUL </s> -0.3010
-0.3010 FUN </s> -0.3010
-0.3010 GAP </s> -0.3010
-0.3010 GET </s> -0.3010
-0.3010 GILL </s> -0.3010
-0.3010 GONE </s> -0.3010
-0.3010 GUN </s> -0.3010
-0.3010 HAS </s> -0.3010
-0.3010 HER </s> -0.3010
-0.3010 HITTER </s> -0.3010
-0.3010 ICKY </s> -0.3010
-0.3010 INTERNET </s> -0.3010
-0.3010 ISLE </s> -0.3010
-0.3010 ITERATE </s> -0.3010
-0.3010 JANITOR </s> -0.3010
-0.3010 JET </s> -0.3010
-0.3010 JEWEL </s> -0.3010
-0.3010 JOGGER </s> -0.3010
-0.3010 JUST </s> -0.3010
-0.3010 KEY </s> -0.3010
-0.3010 KILL </s> -0.3010
-0.3010 LAST </s> -0.3010
-0.3010 LAW </s> -0.3010
-0.3010 LEER </s> -0.3010
-0.3010 LIBRARY </s> -0.3010
-0.3010 LOBSTER </s> -0.3010
-0.3010 LORE </s> -0.3010
-0.3010 MANNER </s> -0.3010
-0.3010 MEAN </s> -0.3010
-0.3010 MENTHOL </s> -0.3010
-0.3010 MINT </s> -0.3010
-0.3010 MOSTLY </s> -0.3010
-0.3010 MULE </s> -0.3010
-0.3010 NAB </s> -0.3010
-0.3010 NEVER </s> -0.3010
-0.3010 NIBBLE </s> -0.3010
-0.3010 NONETHELESS </s> -0.3010
-0.3010 NUDE </s> -0.3010
-0.3010 OBOE </s> -0.3010
-0.3010 OCULAR </s> -0.3010
-0.3010 ODE </s> -0.3010
-0.3010 OFFER </s> -0.3010
-0.3010 OGLE </s> -0.3010
-0.3010 OH </s> -0.3010
-0.3010 OIL </s> -0.3010
-0.3010 OKAY </s> -0.3010
-0.3010 OM </s> -0.3010
-0.3010 ONTOLOGY </s> -0.3010
-0.3010 OOPS </s> -0.3010
-0.3010 OPERATION </s> -0.3010
-0.3010 ORNATE </s> -0.3010
-0.3010 OSCILLATE </s> -0.3010
-0.3010 OTTER </s> -0.3010
-0.3010 OUT </s> -0.3010
-0.3010 OVER </s> -0.3010
-0.3010 OWN </s> -0.3010
-0.3010 OXEN </s> -0.3010
-0.3010 OYSTER </s> -0.3010
-0.3010 OZ </s> -0.3010
-0.3010 PASTE </s> -0.3010
-0.3010 PAT </s> -0.3010
-0.3010 PEER </s> -0.3010
-0.3010 PERCOLATE </s> -0.3010
-0.3010 PISTON </s> -0.3010
-0.3010 PLUNDER </s> -0.3010
-0.3010 POT </s> -0.3010
-0.3010 PUN </s> -0.3010
-0.3010 QUEEN </s> -0.3010
-0.3010 QUEST </s> -0.3010
-0.3010 QUORUM </s> -0.3010
-0.3010 RAFT </s> -0.3010
-0.3010 RENT </s> -0.3010
-0.3010 RIND </s> -0.3010
-0.3010 RUIN </s> -0.3010
-0.3010 SAFE </s> -0.3010
-0.3010 SANDY </s> -0.3010
-0.3010 SEAR </s> -0.3010
-0.3010 SIN </s> -0.3010
-0.3010 SIREN </s> -0.3010
-0.3010 SUPER </s> -0.3010
-0.3010 TAN </s> -0.3010
-0.3010 TEN </s> -0.3010
-0.3010 TITILLATE </s> -0.3010
-0.3010 TOGGLE </s> -0.3010
-0.3010 TUPLE </s> -0.3010
-0.3010 UBER </s> -0.3010
-0.3010 UDDER </s> -0.3010
-0.3010 UNDERGROUND </s> -0.3010
-0.3010 VACATE </s> -0.3010
-0.3010 VAST </s> -0.3010
-0.3010 VENT </s> -0.3010
-0.3010 VIEW </s> -0.3010
-0.3010 VINE </s> -0.3010
-0.3010 VORACIOUS </s> -0.3010
-0.3010 WAR </s> -0.3010
-0.3010 WASTE </s> -0.3010
-0.3010 WEB </s> -0.3010
-0.3010 WHEN </s> -0.3010
-0.3010 WHIP </s> -0.3010
-0.3010 WHOLE </s> -0.3010
-0.3010 WHY </s> -0.3010
-0.3010 WORE </s> -0.3010
-0.3010 YACHT </s> -0.3010
-0.3010 YES </s> -0.3010
-0.3010 YOKE </s> -0.3010
-0.3010 YUMMY </s> -0.3010
-0.3010 ZAPPER </s> -0.3010
-0.3010 ZEBRA </s> -0.3010
-0.3010 ZONE </s> -0.3010

\3-grams:
-0.3010 <s> ABET </s>
-0.3010 <s> ABLE </s>
-0.3010 <s> ABS </s>
-0.3010 <s> ACE </s>
-0.3010 <s> ACID </s>
-0.3010 <s> ACQUIT </s>
-0.3010 <s> ACRE </s>
-0.3010 <s> ACRID </s>
-0.3010 <s> ADA </s>
-0.3010 <s> ADDLE </s>
-0.3010 <s> ADJUST </s>
-0.3010 <s> ADORE </s>
-0.3010 <s> ADVANTAGE </s>
-0.3010 <s> AFFECT </s>
-0.3010 <s> AFFLUENT </s>
-0.3010 <s> AFORE </s>
-0.3010 <s> AGAIN </s>
-0.3010 <s> AGE </s>
-0.3010 <s> AH </s>
-0.3010 <s> AHEAD </s>
-0.3010 <s> AID </s>
-0.3010 <s> AIM </s>
-0.3010 <s> ALONE </s>
-0.3010 <s> AMENITY </s>
-0.3010 <s> ANODE </s>
-0.3010 <s> AORTA </s>
-0.3010 <s> APPEAR </s>
-0.3010 <s> ARID </s>
-0.3010 <s> ASCEND </s>
-0.3010 <s> ATTEST </s>
-0.3010 <s> AUGMENT </s>
-0.3010 <s> AVERT </s>
-0.3010 <s> AWOKE </s>
-0.3010 <s> BAH </s>
-0.3010 <s> BEND </s>
-0.3010 <s> BIN </s>
-0.3010 <s> BIND </s>
-0.3010 <s> BOND </s>
-0.3010 <s> BONE </s>
-0.3010 <s> BUN </s>
-0.3010 <s> CALL </s>
-0.3010 <s> CAST </s>
-0.3010 <s> CERTIFY </s>
-0.3010 <s> CIGAR </s>
-0.3010 <s> CIRCUS </s>
-0.3010 <s> COMPUTER </s>
-0.3010 <s> CON </s>
-0.3010 <s> CONE </s>
-0.3010 <s> COY </s>
-0.3010 <s> CULL </s>
-0.3010 <s> CUP </s>
-0.3010 <s> CURT </s>
-0.3010 <s> DA </s>
-0.3010 <s> DAFT </s>
-0.3010 <s> DAY </s>
-0.3010 <s> DEED </s>
-0.3010 <s> DESTINY </s>
-0.3010 <s> DIN </s>
-0.3010 <s> DINE </s>
-0.3010 <s> DOG </s>
-0.3010 <s> DOOR </s>
-0.3010 <s> DOSE </s>
-0.3010 <s> DUDE </s>
-0.3010 <s> DUG </s>
-0.3010 <s> EAR </s>
-0.3010 <s> EBB </s>
-0.3010 <s> ECHO </s>
-0.3010 <s> EDGE </s>
-0.3010 <s> EFFORT </s>
-0.3010 <s> EGG </s>
-0.3010 <s> EKE </s>
-0.3010 <s> ELM </s>
-0.3010 <s> EMANATE </s>
-0.3010 <s> ENTIRE </s>
-0.3010 <s> EPISTLE </s>
-0.3010 <s> EQUAL </s>
-0.3010 <s> ERROR </s>
-0.3010 <s> ESTIMATE </s>
-0.3010 <s> EULOGY </s>
-0.3010 <s> EVER </s>
-0.3010 <s> EW </s>
-0.3010 <s> EXAMPLE </s>
-0.3010 <s> EZEKIEL </s>
-0.3010 <s> FAR </s>
-0.3010 <s> FEAR </s>
-0.3010 <s> FILL </s>
-0.3010 <s> FORE </s>
-0.3010 <s> FOUL </s>
-0.3010 <s> FUN </s>
-0.3010 <s> GAP </s>
-0.3010 <s> GET </s>
-0.3010 <s> GILL </s>
-0.3010 <s> GONE </s>
-0.3010 <s> GUN </s>
-0.3010 <s> HAS </s>
-0.3010 <s> HER </s>
-0.3010 <s> HITTER </s>
-0.3010 <s> ICKY </s>
-0.3010 <s> INTERNET </s>
-0.3010 <s> ISLE </s>
-0.3010 <s> ITERATE </s>
-0.3010 <s> JANITOR </s>
-0.3010 <s> JET </s>
-0.3010 <s> JEWEL </s>
-0.3010 <s> JOGGER </s>
-0.3010 <s> JUST </s>
-0.3010 <s> KEY </s>
-0.3010 <s> KILL </s>
-0.3010 <s> LAST </s>
-0.3010 <s> LAW </s>
-0.3010 <s> LEER </s>
-0.3010 <s> LIBRARY </s>
-0.3010 <s> LOBSTER </s>
-0.3010 <s> LORE </s>
-0.3010 <s> MANNER </s>
-0.3010 <s> MEAN </s>
-0.3010 <s> MENTHOL </s>
-0.3010 <s> MINT </s>
-0.3010 <s> MOSTLY </s>
-0.3010 <s> MULE </s>
-0.3010 <s> NAB </s>
-0.3010 <s> NEVER </s>
-0.3010 <s> NIBBLE </s>
-0.3010 <s> NONETHELESS </s>
-0.3010 <s> NUDE </s>
-0.3010 <s> OBOE </s>
-0.3010 <s> OCULAR </s>
-0.3010 <s> ODE </s>
-0.3010 <s> OFFER </s>
-0.3010 <s> OGLE </s>
-0.3010 <s> OH </s>
-0.3010 <s> OIL </s>
-0.3010 <s> OKAY </s>
-0.3010 <s> OM </s>
-0.3010 <s> ONTOLOGY </s>
-0.3010 <s> OOPS </s>
-0.3010 <s> OPERATION </s>
-0.3010 <s> ORNATE </s>
-0.3010 <s> OSCILLATE </s>
-0.3010 <s> OTTER </s>
-0.3010 <s> OUT </s>
-0.3010 <s> OVER </s>
-0.3010 <s> OWN </s>
-0.3010 <s> OXEN </s>
-0.3010 <s> OYSTER </s>
-0.3010 <s> OZ </s>
-0.3010 <s> PASTE </s>
-0.3010 <s> PAT </s>
-0.3010 <s> PEER </s>
-0.3010 <s> PERCOLATE </s>
-0.3010 <s> PISTON </s>
-0.3010 <s> PLUNDER </s>
-0.3010 <s> POT </s>
-0.3010 <s> PUN </s>
-0.3010 <s> QUEEN </s>
-0.3010 <s> QUEST </s>
-0.3010 <s> QUORUM </s>
-0.3010 <s> RAFT </s>
-0.3010 <s> RENT </s>
-0.3010 <s> RIND </s>
-0.3010 <s> RUIN </s>
-0.3010 <s> SAFE </s>
-0.3010 <s> SANDY </s>
-0.3010 <s> SEAR </s>
-0.3010 <s> SIN </s>
-0.3010 <s> SIREN </s>
-0.3010 <s> SUPER </s>
-0.3010 <s> TAN </s>
-0.3010 <s> TEN </s>
-0.3010 <s> TITILLATE </s>
-0.3010 <s> TOGGLE </s>
-0.3010 <s> TUPLE </s>
-0.3010 <s> UBER </s>
-0.3010 <s> UDDER </s>
-0.3010 <s> UNDERGROUND </s>
-0.3010 <s> VACATE </s>
-0.3010 <s> VAST </s>
-0.3010 <s> VENT </s>
-0.3010 <s> VIEW </s>
-0.3010 <s> VINE </s>
-0.3010 <s> VORACIOUS </s>
-0.3010 <s> WAR </s>
-0.3010 <s> WASTE </s>
-0.3010 <s> WEB </s>
-0.3010 <s> WHEN </s>
-0.3010 <s> WHIP </s>
-0.3010 <s> WHOLE </s>
-0.3010 <s> WHY </s>
-0.3010 <s> WORE </s>
-0.3010 <s> YACHT </s>
-0.3010 <s> YES </s>
-0.3010 <s> YOKE </s>
-0.3010 <s> YUMMY </s>
-0.3010 <s> ZAPPER </s>
-0.3010 <s> ZEBRA </s>
-0.3010 <s> ZONE </s>

\end\
